svm_type c_svc
kernel_type rbf
gamma 0.02
nr_class 2
total_sv 133
rho -0.577063
label 0 1
nr_sv 87 46
SV
0.583109657802473 1:0 2:0 3:0 4:0 5:0 6:0 7:0 8:0 9:1 10:0 11:0 12:0 13:0 14:0 15:0 16:0 17:1 18:1 19:0 20:0 21:1 22:0 23:0 24:1 25:0 26:0 27:0 28:0 29:2 30:1 31:1 32:1 33:1 34:1 35:0 36:2 37:3 38:2 39:1 40:0 41:0 42:2 43:0 44:0 45:0 46:1 47:1 48:0 49:3 50:1 
0.4842501685426457 1:0 2:0 3:0 4:0 5:0 6:0 7:0 8:0 9:0 10:0 11:0 12:0 13:0 14:0 15:0 16:0 17:0 18:0 19:0 20:0 21:0 22:0 23:0 24:0 25:0 26:0 27:0 28:1 29:0 30:0 31:1 32:0 33:0 34:1 35:0 36:2 37:1 38:0 39:0 40:0 41:2 42:0 43:1 44:0 45:1 46:0 47:0 48:0 49:0 50:0 
0.3526524939177352 1:0 2:0 3:0 4:0 5:0 6:0 7:0 8:0 9:0 10:1 11:1 12:1 13:2 14:0 15:5 16:2 17:0 18:0 19:1 20:1 21:0 22:0 23:1 24:0 25:0 26:0 27:0 28:2 29:0 30:6 31:0 32:2 33:1 34:0 35:4 36:0 37:5 38:1 39:1 40:0 41:0 42:9 43:3 44:2 45:1 46:3 47:0 48:3 49:0 50:5 
0.5091325962364478 1:0 2:0 3:0 4:0 5:0 6:0 7:0 8:0 9:0 10:0 11:0 12:0 13:0 14:0 15:0 16:0 17:0 18:0 19:0 20:0 21:0 22:1 23:0 24:0 25:0 26:0 27:0 28:0 29:0 30:0 31:1 32:0 33:0 34:0 35:0 36:0 37:0 38:0 39:0 40:0 41:1 42:0 43:0 44:4 45:1 46:3 47:0 48:0 49:2 50:1 
0.6626162780375834 1:0 2:0 3:1 4:0 5:0 6:0 7:0 8:0 9:0 10:0 11:0 12:0 13:0 14:0 15:0 16:0 17:1 18:1 19:0 20:0 21:0 22:0 23:1 24:0 25:1 26:0 27:0 28:2 29:0 30:0 31:1 32:0 33:3 34:0 35:0 36:1 37:1 38:2 39:0 40:0 41:2 42:0 43:0 44:1 45:0 46:2 47:1 48:1 49:1 50:2 
0.4133742296897731 1:0 2:0 3:0 4:0 5:0 6:0 7:0 8:0 9:0 10:0 11:0 12:0 13:0 14:0 15:0 16:0 17:0 18:0 19:0 20:0 21:0 22:0 23:0 24:0 25:0 26:0 27:0 28:0 29:0 30:1 31:1 32:3 33:1 34:0 35:0 36:0 37:1 38:0 39:0 40:0 41:0 42:0 43:0 44:2 45:0 46:1 47:0 48:1 49:0 50:2 
0.2945989170717569 1:0 2:0 3:0 4:0 5:0 6:0 7:0 8:0 9:0 10:0 11:1 12:0 13:0 14:0 15:0 16:0 17:0 18:0 19:0 20:0 21:0 22:0 23:2 24:0 25:1 26:0 27:1 28:0 29:0 30:0 31:0 32:1 33:1 34:1 35:0 36:2 37:2 38:1 39:0 40:0 41:0 42:0 43:1 44:2 45:0 46:1 47:1 48:0 49:0 50:1 
1 1:0 2:0 3:0 4:0 5:0 6:0 7:0 8:0 9:0 10:0 11:1 12:0 13:1 14:0 15:0 16:0 17:0 18:1 19:0 20:0 21:0 22:0 23:0 24:0 25:0 26:0 27:0 28:0 29:0 30:0 31:0 32:1 33:0 34:0 35:0 36:0 37:1 38:0 39:0 40:0 41:1 42:4 43:1 44:2 45:1 46:0 47:0 48:0 49:1 50:0 
1 1:0 2:0 3:0 4:0 5:0 6:0 7:0 8:0 9:0 10:0 11:1 12:0 13:0 14:0 15:0 16:0 17:0 18:0 19:0 20:0 21:0 22:0 23:0 24:0 25:0 26:0 27:0 28:1 29:1 30:0 31:0 32:1 33:0 34:0 35:1 36:0 37:0 38:0 39:0 40:0 41:0 42:0 43:0 44:1 45:0 46:0 47:0 48:0 49:0 50:1 
1 1:0 2:0 3:0 4:0 5:0 6:0 7:0 8:0 9:0 10:0 11:0 12:0 13:0 14:0 15:0 16:1 17:0 18:0 19:0 20:0 21:0 22:0 23:0 24:0 25:0 26:1 27:0 28:0 29:0 30:1 31:0 32:0 33:0 34:0 35:0 36:0 37:0 38:0 39:0 40:0 41:0 42:0 43:0 44:0 45:1 46:0 47:0 48:0 49:0 50:0 
1 1:0 2:0 3:0 4:0 5:0 6:0 7:0 8:0 9:0 10:0 11:0 12:0 13:0 14:0 15:1 16:0 17:0 18:0 19:0 20:0 21:1 22:0 23:0 24:0 25:0 26:0 27:0 28:0 29:1 30:0 31:0 32:1 33:1 34:1 35:1 36:1 37:0 38:0 39:0 40:0 41:0 42:0 43:1 44:0 45:0 46:0 47:0 48:0 49:0 50:1 
0.4983918278881707 1:0 2:0 3:0 4:0 5:0 6:0 7:0 8:0 9:0 10:0 11:0 12:0 13:0 14:0 15:0 16:0 17:0 18:0 19:0 20:0 21:0 22:0 23:0 24:0 25:0 26:0 27:0 28:0 29:3 30:0 31:0 32:0 33:0 34:3 35:0 36:0 37:0 38:0 39:0 40:0 41:0 42:0 43:0 44:0 45:1 46:1 47:0 48:0 49:0 50:0 
0.7670453334788757 1:0 2:0 3:0 4:0 5:0 6:0 7:0 8:0 9:0 10:0 11:0 12:0 13:0 14:0 15:0 16:0 17:0 18:0 19:0 20:0 21:0 22:0 23:0 24:0 25:2 26:0 27:0 28:0 29:0 30:0 31:0 32:0 33:0 34:1 35:0 36:0 37:0 38:0 39:0 40:0 41:0 42:0 43:0 44:0 45:0 46:1 47:0 48:0 49:0 50:0 
0.4688575941659734 1:0 2:0 3:0 4:0 5:0 6:0 7:0 8:0 9:0 10:0 11:0 12:0 13:0 14:0 15:0 16:1 17:0 18:0 19:0 20:2 21:0 22:0 23:0 24:0 25:4 26:1 27:0 28:0 29:2 30:3 31:1 32:0 33:0 34:1 35:2 36:0 37:2 38:0 39:2 40:0 41:2 42:9 43:0 44:0 45:1 46:3 47:1 48:0 49:3 50:3 
1 1:0 2:0 3:0 4:0 5:1 6:0 7:0 8:0 9:0 10:0 11:0 12:0 13:0 14:0 15:0 16:0 17:0 18:0 19:0 20:3 21:0 22:0 23:0 24:0 25:0 26:0 27:0 28:0 29:0 30:0 31:0 32:0 33:0 34:0 35:0 36:0 37:0 38:0 39:0 40:0 41:0 42:0 43:1 44:0 45:0 46:0 47:0 48:0 49:1 50:0 
0.1774804299372605 1:0 2:0 3:0 4:0 5:0 6:0 7:0 8:0 9:0 10:0 11:0 12:0 13:0 14:0 15:0 16:0 17:0 18:0 19:0 20:0 21:0 22:0 23:0 24:0 25:0 26:0 27:0 28:0 29:0 30:2 31:1 32:0 33:0 34:0 35:0 36:0 37:0 38:0 39:1 40:0 41:1 42:3 43:0 44:1 45:0 46:2 47:1 48:1 49:1 50:2 
0.1831790995191827 1:0 2:0 3:0 4:0 5:0 6:0 7:0 8:0 9:0 10:0 11:0 12:0 13:0 14:0 15:0 16:0 17:0 18:0 19:0 20:0 21:0 22:0 23:0 24:0 25:0 26:0 27:1 28:0 29:1 30:0 31:0 32:0 33:0 34:0 35:0 36:0 37:0 38:0 39:0 40:0 41:0 42:0 43:0 44:0 45:0 46:0 47:0 48:0 49:0 50:0 
0.5208590245563871 1:0 2:0 3:0 4:0 5:0 6:0 7:0 8:0 9:0 10:1 11:0 12:0 13:0 14:0 15:0 16:0 17:0 18:0 19:0 20:1 21:0 22:0 23:0 24:0 25:0 26:0 27:0 28:4 29:0 30:0 31:1 32:1 33:0 34:0 35:5 36:1 37:0 38:0 39:1 40:0 41:0 42:0 43:0 44:1 45:0 46:0 47:2 48:1 49:0 50:1 
0.3494367629456044 1:0 2:0 3:0 4:0 5:0 6:0 7:0 8:0 9:0 10:0 11:0 12:0 13:0 14:0 15:0 16:0 17:1 18:0 19:0 20:0 21:0 22:0 23:0 24:0 25:0 26:0 27:0 28:0 29:0 30:0 31:0 32:0 33:1 34:0 35:0 36:1 37:0 38:0 39:1 40:0 41:1 42:0 43:0 44:0 45:0 46:0 47:1 48:0 49:1 50:0 
0.1629409037020279 1:0 2:0 3:0 4:0 5:0 6:0 7:0 8:0 9:0 10:0 11:0 12:0 13:0 14:0 15:0 16:1 17:0 18:0 19:0 20:0 21:0 22:0 23:0 24:0 25:3 26:0 27:2 28:0 29:1 30:0 31:0 32:0 33:1 34:0 35:1 36:0 37:0 38:0 39:0 40:0 41:0 42:0 43:1 44:2 45:1 46:0 47:3 48:1 49:2 50:1 
0.3903503597159165 1:0 2:0 3:0 4:0 5:0 6:0 7:1 8:0 9:1 10:1 11:0 12:0 13:0 14:0 15:0 16:0 17:0 18:0 19:0 20:0 21:0 22:0 23:1 24:1 25:0 26:0 27:1 28:0 29:0 30:0 31:0 32:0 33:0 34:2 35:0 36:0 37:1 38:0 39:0 40:0 41:0 42:0 43:0 44:0 45:0 46:0 47:0 48:0 49:0 50:2 
0.9842797005182031 1:0 2:0 3:0 4:0 5:0 6:0 7:0 8:0 9:0 10:0 11:0 12:0 13:0 14:0 15:0 16:0 17:0 18:0 19:0 20:0 21:1 22:0 23:0 24:0 25:0 26:0 27:0 28:0 29:0 30:0 31:0 32:0 33:0 34:0 35:0 36:0 37:0 38:0 39:0 40:0 41:0 42:0 43:0 44:0 45:0 46:0 47:0 48:0 49:0 50:0 
0.2437899893941515 1:0 2:0 3:0 4:0 5:0 6:0 7:0 8:0 9:0 10:0 11:0 12:0 13:0 14:0 15:0 16:0 17:0 18:0 19:0 20:0 21:0 22:0 23:0 24:1 25:0 26:0 27:1 28:0 29:0 30:0 31:0 32:0 33:1 34:0 35:0 36:0 37:0 38:0 39:1 40:0 41:0 42:0 43:3 44:0 45:0 46:0 47:0 48:0 49:0 50:1 
0.663135750904646 1:0 2:0 3:0 4:0 5:0 6:0 7:0 8:0 9:2 10:0 11:0 12:0 13:2 14:1 15:0 16:0 17:0 18:0 19:1 20:1 21:0 22:2 23:0 24:1 25:1 26:0 27:0 28:1 29:1 30:1 31:0 32:0 33:1 34:1 35:1 36:2 37:0 38:2 39:1 40:0 41:2 42:0 43:0 44:2 45:0 46:0 47:0 48:1 49:2 50:0 
1 1:0 2:0 3:0 4:0 5:0 6:0 7:0 8:0 9:0 10:0 11:0 12:0 13:0 14:0 15:0 16:0 17:0 18:0 19:0 20:0 21:0 22:0 23:0 24:0 25:0 26:0 27:1 28:0 29:0 30:0 31:0 32:0 33:0 34:0 35:0 36:0 37:0 38:0 39:0 40:0 41:0 42:0 43:0 44:0 45:0 46:0 47:0 48:0 49:0 50:0 
0.3128443254233942 1:0 2:0 3:0 4:0 5:0 6:0 7:0 8:0 9:0 10:0 11:1 12:0 13:0 14:0 15:0 16:0 17:0 18:0 19:0 20:0 21:0 22:0 23:1 24:0 25:0 26:0 27:3 28:0 29:0 30:0 31:0 32:0 33:1 34:1 35:0 36:0 37:1 38:1 39:1 40:1 41:0 42:1 43:0 44:0 45:3 46:2 47:1 48:0 49:1 50:0 
0.01712317822764265 1:0 2:0 3:0 4:0 5:0 6:0 7:0 8:0 9:0 10:0 11:0 12:0 13:0 14:0 15:0 16:1 17:0 18:0 19:0 20:0 21:0 22:0 23:0 24:0 25:0 26:0 27:0 28:0 29:0 30:0 31:3 32:0 33:0 34:1 35:0 36:1 37:0 38:0 39:0 40:0 41:0 42:0 43:1 44:0 45:1 46:0 47:0 48:1 49:0 50:1 
1 1:0 2:0 3:0 4:0 5:0 6:0 7:1 8:0 9:0 10:0 11:0 12:0 13:0 14:0 15:0 16:0 17:0 18:0 19:0 20:0 21:0 22:0 23:0 24:0 25:0 26:1 27:0 28:0 29:0 30:0 31:0 32:0 33:0 34:0 35:0 36:0 37:0 38:0 39:2 40:0 41:0 42:0 43:0 44:0 45:0 46:0 47:1 48:0 49:0 50:0 
0.5476144723942781 1:0 2:0 3:0 4:0 5:0 6:0 7:0 8:0 9:0 10:0 11:0 12:2 13:0 14:0 15:1 16:0 17:0 18:0 19:4 20:1 21:0 22:0 23:1 24:2 25:1 26:0 27:0 28:0 29:1 30:1 31:1 32:1 33:2 34:1 35:1 36:3 37:2 38:0 39:1 40:0 41:0 42:4 43:1 44:1 45:0 46:1 47:0 48:4 49:2 50:6 
0.4817257692358466 1:0 2:0 3:0 4:0 5:0 6:1 7:0 8:0 9:0 10:0 11:0 12:0 13:0 14:0 15:0 16:0 17:0 18:1 19:3 20:0 21:2 22:0 23:0 24:3 25:1 26:0 27:5 28:0 29:1 30:0 31:0 32:0 33:1 34:0 35:4 36:1 37:5 38:3 39:2 40:0 41:3 42:2 43:1 44:0 45:0 46:0 47:2 48:0 49:3 50:11 
0.5754826858113435 1:0 2:0 3:0 4:0 5:0 6:0 7:0 8:0 9:0 10:0 11:0 12:0 13:0 14:0 15:0 16:0 17:0 18:0 19:0 20:0 21:0 22:0 23:0 24:0 25:0 26:0 27:0 28:0 29:0 30:0 31:0 32:0 33:0 34:0 35:1 36:1 37:0 38:0 39:2 40:0 41:0 42:0 43:0 44:0 45:0 46:0 47:0 48:1 49:0 50:0 
0.5079430051426155 1:0 2:0 3:0 4:0 5:0 6:0 7:1 8:0 9:0 10:0 11:0 12:0 13:1 14:0 15:0 16:0 17:0 18:1 19:0 20:0 21:0 22:0 23:1 24:0 25:0 26:2 27:0 28:1 29:2 30:0 31:3 32:1 33:2 34:0 35:1 36:1 37:0 38:7 39:3 40:0 41:0 42:2 43:1 44:0 45:0 46:0 47:2 48:3 49:2 50:3 
0.09633178410768904 1:0 2:0 3:0 4:0 5:1 6:0 7:0 8:0 9:0 10:0 11:0 12:0 13:1 14:0 15:0 16:0 17:0 18:0 19:1 20:0 21:1 22:0 23:0 24:0 25:0 26:1 27:0 28:0 29:1 30:2 31:1 32:0 33:0 34:0 35:0 36:0 37:2 38:0 39:0 40:0 41:2 42:0 43:1 44:4 45:1 46:2 47:1 48:1 49:0 50:1 
0.5050233339606482 1:0 2:0 3:0 4:0 5:0 6:0 7:0 8:0 9:0 10:2 11:0 12:0 13:0 14:1 15:0 16:0 17:0 18:1 19:0 20:1 21:1 22:0 23:0 24:1 25:0 26:0 27:0 28:0 29:0 30:0 31:0 32:0 33:1 34:3 35:0 36:1 37:1 38:0 39:0 40:0 41:1 42:3 43:0 44:0 45:0 46:1 47:1 48:0 49:1 50:0 
0.4482094610288035 1:0 2:0 3:0 4:0 5:0 6:0 7:0 8:0 9:0 10:0 11:0 12:0 13:0 14:0 15:0 16:0 17:0 18:0 19:0 20:0 21:0 22:0 23:0 24:1 25:0 26:0 27:0 28:0 29:0 30:0 31:0 32:0 33:0 34:0 35:0 36:0 37:1 38:0 39:0 40:1 41:0 42:0 43:0 44:0 45:0 46:0 47:0 48:0 49:0 50:0 
0.5004380511672851 1:0 2:0 3:0 4:0 5:0 6:0 7:0 8:0 9:0 10:0 11:0 12:0 13:0 14:1 15:0 16:0 17:1 18:0 19:1 20:1 21:0 22:0 23:0 24:1 25:0 26:0 27:0 28:0 29:1 30:0 31:0 32:0 33:0 34:0 35:0 36:1 37:1 38:0 39:1 40:0 41:0 42:0 43:0 44:0 45:0 46:0 47:0 48:0 49:1 50:0 
0.5840356493042653 1:0 2:0 3:0 4:0 5:0 6:0 7:0 8:0 9:0 10:0 11:0 12:0 13:0 14:0 15:0 16:0 17:0 18:0 19:0 20:0 21:0 22:0 23:0 24:0 25:0 26:0 27:0 28:0 29:0 30:0 31:0 32:0 33:1 34:0 35:1 36:0 37:0 38:0 39:0 40:0 41:0 42:0 43:0 44:0 45:0 46:0 47:0 48:0 49:0 50:0 
0.4383419651832736 1:0 2:0 3:0 4:0 5:0 6:0 7:0 8:0 9:1 10:1 11:0 12:2 13:0 14:0 15:2 16:1 17:1 18:1 19:0 20:0 21:1 22:0 23:1 24:1 25:0 26:2 27:1 28:2 29:1 30:0 31:0 32:2 33:0 34:1 35:2 36:3 37:1 38:2 39:2 40:0 41:4 42:11 43:2 44:3 45:3 46:0 47:0 48:2 49:4 50:1 
0.2807031116530436 1:0 2:0 3:0 4:0 5:0 6:0 7:0 8:0 9:0 10:0 11:0 12:0 13:0 14:0 15:0 16:0 17:0 18:0 19:0 20:0 21:0 22:0 23:1 24:0 25:0 26:0 27:0 28:0 29:1 30:0 31:0 32:0 33:0 34:0 35:0 36:0 37:1 38:1 39:0 40:0 41:2 42:0 43:0 44:0 45:0 46:0 47:0 48:0 49:0 50:0 
0.04083297490174118 1:0 2:0 3:0 4:0 5:0 6:0 7:0 8:0 9:0 10:0 11:0 12:0 13:0 14:1 15:0 16:0 17:0 18:0 19:0 20:0 21:0 22:0 23:0 24:0 25:0 26:1 27:0 28:0 29:0 30:0 31:2 32:0 33:0 34:1 35:0 36:0 37:0 38:0 39:0 40:0 41:1 42:0 43:0 44:1 45:0 46:0 47:0 48:0 49:1 50:0 
1 1:0 2:0 3:0 4:0 5:0 6:0 7:0 8:0 9:0 10:0 11:0 12:0 13:0 14:0 15:1 16:1 17:1 18:0 19:0 20:0 21:0 22:0 23:0 24:0 25:0 26:0 27:0 28:0 29:0 30:0 31:0 32:1 33:1 34:1 35:0 36:1 37:0 38:0 39:0 40:0 41:2 42:0 43:2 44:1 45:0 46:1 47:0 48:0 49:0 50:1 
0.47099200806519 1:0 2:0 3:0 4:0 5:0 6:0 7:0 8:0 9:0 10:3 11:0 12:0 13:0 14:1 15:0 16:0 17:0 18:0 19:0 20:0 21:0 22:0 23:0 24:1 25:0 26:0 27:1 28:0 29:0 30:0 31:1 32:0 33:0 34:4 35:0 36:0 37:0 38:0 39:4 40:0 41:6 42:0 43:1 44:0 45:2 46:1 47:0 48:0 49:1 50:2 
0.1695156439265947 1:0 2:0 3:0 4:0 5:0 6:1 7:0 8:0 9:0 10:0 11:0 12:0 13:0 14:0 15:0 16:0 17:0 18:0 19:0 20:0 21:0 22:0 23:0 24:0 25:0 26:0 27:0 28:0 29:0 30:0 31:0 32:0 33:0 34:0 35:0 36:0 37:0 38:0 39:0 40:0 41:0 42:0 43:0 44:1 45:0 46:0 47:0 48:0 49:0 50:0 
0.06726570475264909 1:0 2:0 3:0 4:0 5:0 6:0 7:0 8:0 9:0 10:0 11:0 12:0 13:0 14:0 15:1 16:0 17:0 18:0 19:0 20:1 21:0 22:0 23:2 24:1 25:1 26:0 27:0 28:0 29:1 30:0 31:0 32:1 33:0 34:0 35:1 36:0 37:2 38:3 39:1 40:0 41:0 42:0 43:1 44:3 45:2 46:3 47:0 48:0 49:2 50:0 
0.3600349206222878 1:0 2:0 3:0 4:0 5:0 6:2 7:0 8:0 9:0 10:0 11:0 12:0 13:2 14:0 15:0 16:0 17:0 18:0 19:0 20:0 21:0 22:0 23:1 24:0 25:0 26:0 27:1 28:0 29:0 30:0 31:0 32:0 33:0 34:0 35:0 36:0 37:0 38:0 39:1 40:0 41:1 42:1 43:1 44:2 45:0 46:0 47:0 48:0 49:0 50:0 
0.5734225336281954 1:0 2:0 3:0 4:0 5:0 6:0 7:0 8:0 9:0 10:0 11:1 12:0 13:1 14:0 15:0 16:2 17:0 18:2 19:0 20:1 21:2 22:1 23:3 24:2 25:1 26:0 27:1 28:1 29:0 30:0 31:2 32:1 33:3 34:2 35:2 36:3 37:3 38:1 39:1 40:3 41:3 42:0 43:1 44:3 45:2 46:1 47:5 48:3 49:1 50:2 
0.134927114152791 1:0 2:0 3:0 4:0 5:0 6:0 7:0 8:0 9:0 10:0 11:0 12:0 13:0 14:0 15:0 16:0 17:1 18:0 19:0 20:0 21:1 22:0 23:0 24:1 25:0 26:0 27:0 28:0 29:1 30:0 31:2 32:0 33:0 34:1 35:0 36:1 37:3 38:0 39:1 40:0 41:2 42:1 43:2 44:1 45:2 46:0 47:0 48:2 49:1 50:0 
0.4592388268749466 1:0 2:0 3:0 4:0 5:1 6:0 7:0 8:1 9:1 10:0 11:0 12:0 13:0 14:0 15:0 16:0 17:0 18:0 19:0 20:0 21:0 22:0 23:0 24:0 25:0 26:0 27:0 28:0 29:0 30:0 31:0 32:1 33:0 34:0 35:0 36:0 37:0 38:0 39:0 40:0 41:0 42:0 43:0 44:0 45:0 46:1 47:0 48:0 49:0 50:0 
0.2286848838630339 1:0 2:0 3:0 4:0 5:0 6:1 7:0 8:0 9:0 10:0 11:0 12:0 13:1 14:0 15:1 16:0 17:0 18:0 19:0 20:0 21:1 22:1 23:0 24:2 25:2 26:0 27:1 28:1 29:0 30:0 31:1 32:1 33:1 34:0 35:2 36:0 37:2 38:3 39:0 40:0 41:1 42:0 43:0 44:2 45:3 46:0 47:0 48:0 49:0 50:0 
0.008219835391498467 1:0 2:0 3:0 4:0 5:0 6:0 7:0 8:0 9:0 10:0 11:0 12:0 13:0 14:0 15:0 16:0 17:1 18:0 19:0 20:0 21:0 22:0 23:0 24:0 25:0 26:0 27:0 28:0 29:0 30:1 31:0 32:0 33:0 34:0 35:0 36:0 37:0 38:2 39:0 40:0 41:0 42:0 43:0 44:0 45:0 46:0 47:0 48:0 49:0 50:0 
0.3872604400573105 1:0 2:0 3:0 4:0 5:0 6:0 7:0 8:0 9:0 10:0 11:0 12:0 13:0 14:0 15:0 16:0 17:0 18:1 19:0 20:0 21:0 22:0 23:0 24:0 25:1 26:2 27:0 28:0 29:0 30:5 31:1 32:0 33:0 34:0 35:1 36:3 37:3 38:3 39:1 40:0 41:0 42:3 43:2 44:0 45:0 46:2 47:0 48:0 49:3 50:5 
0.9344680057626475 1:0 2:0 3:0 4:0 5:1 6:0 7:0 8:0 9:0 10:0 11:0 12:0 13:1 14:0 15:0 16:1 17:1 18:0 19:0 20:0 21:2 22:0 23:0 24:0 25:0 26:2 27:2 28:1 29:2 30:1 31:0 32:4 33:0 34:0 35:0 36:0 37:2 38:0 39:0 40:0 41:4 42:0 43:0 44:1 45:1 46:1 47:1 48:1 49:1 50:0 
0.2641140340892509 1:0 2:0 3:0 4:0 5:0 6:0 7:0 8:0 9:0 10:0 11:0 12:0 13:0 14:0 15:0 16:0 17:0 18:0 19:0 20:0 21:0 22:0 23:0 24:1 25:0 26:0 27:0 28:0 29:0 30:0 31:0 32:0 33:0 34:0 35:0 36:0 37:0 38:0 39:0 40:0 41:0 42:0 43:0 44:0 45:0 46:0 47:0 48:0 49:0 50:0 
0.5425474445664608 1:0 2:0 3:0 4:0 5:0 6:0 7:1 8:1 9:2 10:0 11:0 12:0 13:0 14:0 15:1 16:2 17:1 18:0 19:0 20:1 21:0 22:0 23:3 24:1 25:2 26:0 27:1 28:1 29:4 30:0 31:0 32:1 33:1 34:1 35:0 36:8 37:1 38:3 39:2 40:0 41:2 42:1 43:3 44:1 45:0 46:4 47:5 48:1 49:2 50:2 
0.684339622784868 1:0 2:0 3:0 4:0 5:0 6:0 7:0 8:0 9:0 10:0 11:2 12:1 13:0 14:1 15:0 16:1 17:0 18:0 19:0 20:0 21:0 22:0 23:3 24:3 25:3 26:2 27:0 28:0 29:2 30:1 31:1 32:0 33:1 34:2 35:1 36:0 37:0 38:1 39:2 40:0 41:0 42:0 43:1 44:3 45:2 46:3 47:1 48:3 49:1 50:1 
0.4571310904704866 1:0 2:0 3:0 4:0 5:0 6:0 7:0 8:0 9:0 10:1 11:0 12:0 13:0 14:0 15:0 16:0 17:0 18:0 19:1 20:3 21:2 22:0 23:1 24:1 25:0 26:0 27:0 28:0 29:0 30:0 31:1 32:0 33:0 34:0 35:2 36:1 37:0 38:5 39:2 40:0 41:1 42:0 43:6 44:0 45:0 46:0 47:0 48:2 49:3 50:0 
0.431918500643307 1:0 2:0 3:0 4:0 5:0 6:0 7:0 8:1 9:0 10:1 11:1 12:0 13:1 14:0 15:0 16:1 17:1 18:0 19:0 20:0 21:0 22:0 23:0 24:0 25:1 26:0 27:0 28:1 29:1 30:0 31:0 32:0 33:0 34:0 35:0 36:1 37:0 38:0 39:0 40:0 41:0 42:1 43:1 44:0 45:0 46:0 47:0 48:0 49:1 50:0 
1 1:0 2:0 3:0 4:0 5:0 6:0 7:0 8:0 9:0 10:0 11:0 12:0 13:0 14:0 15:0 16:0 17:0 18:0 19:1 20:0 21:0 22:0 23:0 24:0 25:0 26:1 27:0 28:0 29:0 30:0 31:0 32:0 33:0 34:0 35:2 36:0 37:0 38:0 39:0 40:0 41:0 42:0 43:0 44:0 45:0 46:0 47:0 48:0 49:0 50:0 
0.6794751437794501 1:0 2:0 3:0 4:0 5:0 6:1 7:0 8:0 9:0 10:0 11:0 12:0 13:0 14:0 15:0 16:0 17:0 18:1 19:0 20:0 21:0 22:0 23:0 24:2 25:2 26:0 27:0 28:0 29:0 30:0 31:0 32:0 33:1 34:0 35:0 36:0 37:0 38:0 39:0 40:0 41:0 42:1 43:0 44:0 45:0 46:0 47:0 48:2 49:0 50:0 
0.05429299488039873 1:0 2:0 3:0 4:0 5:0 6:0 7:0 8:0 9:1 10:0 11:0 12:0 13:0 14:0 15:0 16:0 17:0 18:1 19:0 20:0 21:0 22:0 23:0 24:0 25:0 26:0 27:0 28:0 29:0 30:0 31:1 32:0 33:0 34:0 35:0 36:0 37:1 38:0 39:0 40:0 41:0 42:0 43:0 44:1 45:2 46:1 47:0 48:0 49:1 50:2 
0.7583950635757728 1:0 2:0 3:0 4:0 5:0 6:0 7:0 8:0 9:0 10:0 11:0 12:0 13:0 14:0 15:0 16:0 17:0 18:0 19:0 20:0 21:0 22:0 23:1 24:0 25:0 26:0 27:0 28:0 29:0 30:0 31:0 32:0 33:0 34:0 35:0 36:0 37:0 38:0 39:0 40:0 41:0 42:0 43:0 44:0 45:0 46:0 47:0 48:0 49:0 50:0 
0.6519850978370155 1:0 2:0 3:0 4:0 5:0 6:0 7:0 8:0 9:0 10:1 11:0 12:0 13:0 14:0 15:0 16:0 17:0 18:0 19:0 20:0 21:1 22:0 23:0 24:0 25:0 26:1 27:0 28:0 29:0 30:0 31:0 32:0 33:2 34:1 35:0 36:0 37:0 38:3 39:1 40:0 41:0 42:0 43:0 44:1 45:0 46:1 47:0 48:1 49:0 50:0 
0.4224934970213673 1:0 2:0 3:0 4:0 5:0 6:0 7:0 8:0 9:0 10:0 11:0 12:0 13:0 14:0 15:0 16:0 17:0 18:0 19:0 20:0 21:0 22:0 23:0 24:0 25:0 26:1 27:0 28:0 29:0 30:1 31:0 32:0 33:1 34:0 35:0 36:2 37:3 38:0 39:0 40:0 41:0 42:0 43:2 44:0 45:0 46:1 47:35 48:0 49:0 50:0 
1 1:0 2:0 3:0 4:0 5:0 6:0 7:0 8:0 9:0 10:0 11:0 12:0 13:0 14:0 15:0 16:0 17:0 18:0 19:0 20:0 21:0 22:0 23:0 24:0 25:0 26:0 27:0 28:0 29:0 30:0 31:0 32:0 33:0 34:1 35:0 36:0 37:0 38:0 39:0 40:1 41:0 42:0 43:0 44:0 45:0 46:0 47:0 48:0 49:0 50:0 
1 1:0 2:0 3:0 4:0 5:0 6:0 7:0 8:0 9:0 10:0 11:0 12:0 13:0 14:0 15:0 16:0 17:0 18:0 19:0 20:0 21:0 22:0 23:0 24:0 25:0 26:0 27:0 28:0 29:0 30:0 31:0 32:0 33:0 34:0 35:0 36:0 37:0 38:0 39:0 40:0 41:1 42:0 43:0 44:0 45:0 46:0 47:0 48:0 49:0 50:0 
0.413903503349773 1:0 2:1 3:0 4:0 5:0 6:0 7:0 8:0 9:0 10:0 11:0 12:0 13:0 14:1 15:0 16:3 17:1 18:0 19:0 20:0 21:0 22:0 23:0 24:1 25:4 26:0 27:0 28:2 29:2 30:2 31:2 32:1 33:0 34:5 35:2 36:1 37:0 38:3 39:3 40:0 41:4 42:1 43:1 44:5 45:9 46:6 47:3 48:12 49:1 50:2 
0.4146937835732276 1:0 2:0 3:0 4:0 5:0 6:0 7:1 8:0 9:0 10:0 11:0 12:0 13:0 14:0 15:0 16:0 17:0 18:0 19:0 20:0 21:0 22:0 23:0 24:0 25:0 26:0 27:1 28:0 29:0 30:0 31:0 32:0 33:0 34:0 35:0 36:0 37:0 38:0 39:0 40:0 41:1 42:0 43:0 44:0 45:0 46:0 47:0 48:3 49:0 50:2 
0.2023208865972602 1:0 2:0 3:0 4:0 5:0 6:0 7:0 8:0 9:0 10:0 11:0 12:0 13:0 14:0 15:1 16:1 17:2 18:0 19:0 20:0 21:0 22:0 23:0 24:1 25:0 26:1 27:0 28:0 29:0 30:0 31:1 32:1 33:0 34:1 35:0 36:1 37:7 38:1 39:1 40:0 41:0 42:1 43:0 44:1 45:4 46:2 47:0 48:0 49:0 50:3 
0.6081599166087105 1:0 2:0 3:0 4:0 5:0 6:0 7:0 8:0 9:0 10:0 11:0 12:0 13:0 14:0 15:0 16:0 17:0 18:0 19:0 20:0 21:0 22:0 23:0 24:0 25:0 26:0 27:0 28:0 29:0 30:0 31:0 32:0 33:0 34:0 35:0 36:0 37:0 38:0 39:0 40:0 41:0 42:0 43:0 44:0 45:0 46:0 47:0 48:0 49:0 50:0 
1 1:0 2:0 3:0 4:0 5:0 6:0 7:0 8:0 9:0 10:0 11:0 12:0 13:0 14:0 15:0 16:0 17:0 18:0 19:0 20:0 21:0 22:0 23:0 24:0 25:0 26:0 27:0 28:0 29:0 30:0 31:0 32:0 33:0 34:0 35:0 36:0 37:0 38:0 39:0 40:0 41:0 42:0 43:0 44:0 45:0 46:0 47:0 48:0 49:0 50:0 
0.3470819533306143 1:0 2:0 3:0 4:0 5:0 6:0 7:0 8:0 9:0 10:0 11:0 12:0 13:0 14:0 15:0 16:0 17:0 18:0 19:0 20:2 21:0 22:0 23:0 24:0 25:0 26:0 27:0 28:0 29:0 30:0 31:3 32:0 33:0 34:1 35:2 36:1 37:0 38:3 39:0 40:0 41:2 42:0 43:0 44:0 45:3 46:1 47:0 48:0 49:2 50:0 
0.6497060697563167 1:0 2:0 3:0 4:0 5:0 6:0 7:0 8:0 9:0 10:0 11:0 12:0 13:1 14:1 15:1 16:0 17:0 18:1 19:0 20:0 21:0 22:0 23:0 24:1 25:1 26:0 27:0 28:1 29:0 30:1 31:0 32:2 33:0 34:2 35:0 36:1 37:1 38:0 39:0 40:0 41:2 42:0 43:2 44:7 45:0 46:2 47:0 48:0 49:1 50:2 
1 1:0 2:0 3:0 4:0 5:0 6:0 7:0 8:0 9:0 10:0 11:0 12:0 13:0 14:0 15:0 16:0 17:0 18:0 19:0 20:0 21:0 22:0 23:0 24:0 25:0 26:0 27:0 28:0 29:0 30:0 31:0 32:0 33:0 34:0 35:0 36:0 37:0 38:0 39:0 40:0 41:0 42:0 43:0 44:0 45:0 46:0 47:0 48:0 49:0 50:0 
0.3875030504873082 1:0 2:0 3:0 4:0 5:0 6:0 7:0 8:0 9:0 10:0 11:0 12:0 13:0 14:0 15:0 16:0 17:0 18:0 19:0 20:1 21:0 22:0 23:0 24:0 25:0 26:0 27:1 28:1 29:0 30:1 31:0 32:1 33:0 34:0 35:1 36:0 37:0 38:0 39:1 40:0 41:0 42:1 43:1 44:1 45:0 46:2 47:0 48:2 49:0 50:0 
1 1:0 2:0 3:0 4:0 5:0 6:0 7:0 8:0 9:0 10:0 11:0 12:0 13:0 14:0 15:0 16:0 17:0 18:0 19:0 20:0 21:0 22:0 23:0 24:0 25:0 26:0 27:0 28:0 29:0 30:0 31:0 32:0 33:0 34:0 35:0 36:0 37:0 38:0 39:0 40:0 41:0 42:0 43:0 44:0 45:0 46:0 47:0 48:0 49:0 50:0 
0.436035850390705 1:0 2:0 3:0 4:0 5:0 6:0 7:0 8:0 9:0 10:0 11:0 12:0 13:0 14:0 15:0 16:0 17:0 18:0 19:0 20:0 21:0 22:0 23:1 24:1 25:0 26:1 27:0 28:2 29:0 30:1 31:1 32:1 33:0 34:0 35:3 36:0 37:1 38:0 39:0 40:0 41:0 42:0 43:0 44:0 45:3 46:0 47:0 48:0 49:1 50:1 
0.3746342938276747 1:0 2:0 3:0 4:0 5:1 6:0 7:0 8:0 9:0 10:0 11:1 12:0 13:0 14:0 15:1 16:0 17:0 18:0 19:1 20:0 21:2 22:0 23:0 24:0 25:0 26:1 27:0 28:0 29:1 30:0 31:0 32:1 33:0 34:2 35:0 36:0 37:3 38:0 39:1 40:0 41:2 42:0 43:1 44:2 45:0 46:3 47:0 48:1 49:2 50:2 
0.7317420019931059 1:0 2:0 3:0 4:0 5:0 6:0 7:0 8:0 9:0 10:0 11:1 12:0 13:0 14:0 15:0 16:0 17:0 18:0 19:0 20:1 21:1 22:0 23:0 24:0 25:0 26:0 27:0 28:1 29:0 30:0 31:1 32:0 33:2 34:0 35:1 36:0 37:0 38:1 39:0 40:0 41:2 42:0 43:0 44:2 45:1 46:0 47:0 48:1 49:1 50:0 
0.2573685088609768 1:0 2:0 3:0 4:0 5:0 6:0 7:0 8:0 9:0 10:0 11:0 12:0 13:0 14:0 15:0 16:0 17:0 18:0 19:0 20:0 21:0 22:0 23:0 24:0 25:0 26:0 27:0 28:0 29:0 30:0 31:0 32:0 33:0 34:0 35:0 36:0 37:0 38:0 39:0 40:0 41:0 42:0 43:0 44:0 45:0 46:0 47:0 48:0 49:0 50:0 
0.357889692990664 1:0 2:0 3:0 4:0 5:0 6:0 7:0 8:1 9:0 10:0 11:0 12:0 13:0 14:0 15:0 16:0 17:1 18:0 19:2 20:0 21:0 22:1 23:1 24:0 25:0 26:0 27:0 28:0 29:1 30:1 31:1 32:0 33:0 34:1 35:0 36:0 37:0 38:1 39:0 40:0 41:0 42:0 43:0 44:1 45:1 46:1 47:0 48:1 49:1 50:1 
0.5924271736086679 1:0 2:0 3:0 4:0 5:0 6:0 7:0 8:0 9:0 10:0 11:0 12:0 13:0 14:0 15:0 16:0 17:0 18:2 19:0 20:0 21:0 22:0 23:0 24:0 25:0 26:1 27:1 28:0 29:0 30:1 31:0 32:1 33:0 34:0 35:0 36:0 37:2 38:0 39:1 40:0 41:0 42:0 43:0 44:1 45:0 46:0 47:1 48:0 49:1 50:3 
0.4136878415829439 1:0 2:0 3:0 4:1 5:0 6:0 7:1 8:1 9:0 10:0 11:0 12:0 13:1 14:1 15:0 16:0 17:3 18:1 19:0 20:1 21:2 22:0 23:1 24:2 25:0 26:0 27:3 28:0 29:1 30:1 31:5 32:2 33:4 34:3 35:3 36:4 37:3 38:3 39:2 40:0 41:3 42:2 43:0 44:0 45:4 46:3 47:3 48:7 49:1 50:4 
0.5254798101820297 1:0 2:0 3:0 4:0 5:0 6:0 7:0 8:0 9:0 10:0 11:0 12:0 13:0 14:1 15:1 16:0 17:1 18:0 19:0 20:1 21:0 22:0 23:1 24:0 25:0 26:2 27:1 28:0 29:0 30:1 31:0 32:1 33:1 34:0 35:0 36:0 37:0 38:2 39:1 40:0 41:1 42:1 43:1 44:0 45:3 46:0 47:0 48:0 49:7 50:1 
0.4238049033286215 1:0 2:0 3:0 4:0 5:0 6:0 7:0 8:0 9:0 10:0 11:0 12:0 13:0 14:0 15:0 16:0 17:0 18:0 19:1 20:0 21:1 22:0 23:1 24:0 25:0 26:0 27:0 28:0 29:1 30:2 31:0 32:0 33:0 34:0 35:0 36:1 37:0 38:0 39:0 40:0 41:0 42:1 43:4 44:1 45:0 46:0 47:0 48:0 49:0 50:1 
0.202208477238797 1:0 2:0 3:0 4:0 5:0 6:0 7:0 8:0 9:0 10:0 11:0 12:0 13:1 14:0 15:0 16:0 17:0 18:1 19:0 20:0 21:0 22:3 23:0 24:0 25:0 26:0 27:1 28:0 29:0 30:1 31:1 32:0 33:0 34:0 35:1 36:0 37:1 38:1 39:1 40:0 41:0 42:0 43:1 44:1 45:1 46:0 47:0 48:0 49:1 50:1 
1 1:0 2:0 3:0 4:0 5:0 6:0 7:0 8:0 9:0 10:0 11:0 12:0 13:0 14:0 15:0 16:0 17:0 18:0 19:0 20:0 21:0 22:0 23:0 24:1 25:0 26:0 27:0 28:0 29:0 30:0 31:0 32:0 33:0 34:0 35:0 36:0 37:0 38:0 39:0 40:0 41:0 42:0 43:0 44:0 45:0 46:0 47:0 48:0 49:0 50:0 
0.874498989980396 1:0 2:0 3:0 4:0 5:0 6:0 7:0 8:0 9:0 10:0 11:0 12:0 13:0 14:0 15:0 16:0 17:1 18:0 19:0 20:0 21:0 22:0 23:1 24:0 25:0 26:0 27:2 28:0 29:0 30:0 31:0 32:0 33:1 34:0 35:0 36:3 37:0 38:1 39:1 40:0 41:0 42:1 43:1 44:0 45:3 46:1 47:1 48:1 49:0 50:3 
-1 1:0 2:0 3:0 4:0 5:0 6:0 7:0 8:0 9:1 10:0 11:0 12:0 13:0 14:0 15:0 16:0 17:1 18:0 19:0 20:0 21:0 22:0 23:0 24:0 25:0 26:0 27:2 28:1 29:0 30:0 31:1 32:0 33:2 34:1 35:1 36:0 37:1 38:0 39:0 40:0 41:0 42:0 43:0 44:1 45:1 46:0 47:0 48:1 49:1 50:1 
-1 1:0 2:0 3:0 4:0 5:0 6:0 7:0 8:0 9:0 10:0 11:0 12:0 13:0 14:0 15:0 16:0 17:0 18:0 19:0 20:0 21:0 22:0 23:0 24:0 25:0 26:0 27:0 28:0 29:0 30:0 31:0 32:0 33:0 34:0 35:0 36:0 37:0 38:0 39:0 40:0 41:0 42:0 43:0 44:0 45:0 46:0 47:0 48:0 49:0 50:0 
-1 1:0 2:0 3:0 4:0 5:0 6:0 7:0 8:1 9:0 10:0 11:0 12:0 13:0 14:0 15:0 16:0 17:2 18:0 19:0 20:0 21:1 22:6 23:1 24:0 25:0 26:1 27:1 28:0 29:4 30:2 31:1 32:1 33:0 34:3 35:1 36:0 37:0 38:2 39:2 40:0 41:3 42:0 43:1 44:0 45:4 46:1 47:3 48:3 49:1 50:1 
-1 1:0 2:0 3:0 4:0 5:0 6:0 7:0 8:0 9:0 10:0 11:2 12:0 13:0 14:0 15:1 16:0 17:0 18:0 19:4 20:0 21:0 22:0 23:1 24:4 25:1 26:2 27:5 28:2 29:0 30:0 31:2 32:3 33:2 34:4 35:3 36:1 37:1 38:1 39:0 40:0 41:1 42:2 43:0 44:1 45:4 46:1 47:1 48:2 49:1 50:5 
-1 1:0 2:0 3:0 4:0 5:0 6:3 7:0 8:0 9:0 10:1 11:0 12:2 13:0 14:0 15:3 16:0 17:0 18:0 19:0 20:1 21:1 22:0 23:2 24:1 25:0 26:0 27:0 28:1 29:2 30:1 31:0 32:5 33:1 34:4 35:0 36:0 37:0 38:1 39:0 40:0 41:0 42:1 43:0 44:0 45:2 46:0 47:2 48:2 49:0 50:1 
-1 1:0 2:0 3:0 4:0 5:0 6:0 7:0 8:0 9:0 10:1 11:0 12:0 13:0 14:0 15:0 16:1 17:0 18:0 19:0 20:0 21:0 22:0 23:0 24:0 25:1 26:0 27:0 28:0 29:0 30:0 31:0 32:0 33:0 34:0 35:0 36:2 37:0 38:0 39:1 40:0 41:1 42:0 43:1 44:0 45:0 46:2 47:0 48:1 49:0 50:0 
-1 1:0 2:0 3:0 4:0 5:0 6:1 7:0 8:0 9:0 10:0 11:0 12:0 13:0 14:0 15:0 16:0 17:0 18:0 19:1 20:1 21:0 22:0 23:2 24:1 25:0 26:3 27:1 28:0 29:1 30:2 31:1 32:0 33:0 34:2 35:0 36:2 37:1 38:0 39:0 40:1 41:2 42:1 43:0 44:2 45:1 46:3 47:2 48:0 49:0 50:1 
-1 1:0 2:0 3:0 4:0 5:0 6:0 7:0 8:0 9:0 10:0 11:0 12:0 13:0 14:0 15:0 16:0 17:0 18:0 19:0 20:0 21:1 22:0 23:1 24:0 25:1 26:0 27:0 28:0 29:2 30:0 31:0 32:0 33:1 34:0 35:0 36:2 37:0 38:0 39:0 40:0 41:0 42:0 43:0 44:0 45:0 46:0 47:0 48:0 49:0 50:0 
-1 1:0 2:0 3:0 4:0 5:0 6:0 7:0 8:0 9:0 10:0 11:0 12:0 13:0 14:0 15:0 16:0 17:0 18:0 19:0 20:0 21:0 22:0 23:0 24:0 25:0 26:0 27:0 28:0 29:0 30:0 31:0 32:0 33:0 34:0 35:0 36:0 37:0 38:0 39:0 40:0 41:0 42:0 43:0 44:0 45:0 46:0 47:0 48:0 49:0 50:0 
-1 1:0 2:0 3:0 4:0 5:0 6:0 7:0 8:0 9:0 10:0 11:1 12:0 13:0 14:0 15:0 16:0 17:1 18:0 19:0 20:0 21:0 22:0 23:0 24:0 25:0 26:0 27:0 28:0 29:0 30:0 31:0 32:0 33:1 34:0 35:3 36:3 37:2 38:1 39:0 40:1 41:0 42:0 43:1 44:0 45:1 46:0 47:0 48:1 49:4 50:2 
-1 1:0 2:0 3:0 4:0 5:0 6:0 7:0 8:0 9:0 10:0 11:0 12:0 13:0 14:0 15:0 16:0 17:0 18:0 19:0 20:0 21:0 22:0 23:0 24:0 25:0 26:0 27:0 28:0 29:0 30:0 31:0 32:0 33:0 34:0 35:0 36:0 37:0 38:0 39:0 40:0 41:0 42:0 43:0 44:0 45:0 46:0 47:0 48:0 49:0 50:0 
-1 1:0 2:0 3:0 4:0 5:0 6:0 7:0 8:0 9:0 10:0 11:0 12:0 13:0 14:0 15:0 16:0 17:0 18:0 19:0 20:0 21:0 22:0 23:0 24:0 25:0 26:0 27:0 28:0 29:0 30:0 31:0 32:0 33:0 34:1 35:0 36:0 37:0 38:0 39:0 40:0 41:0 42:0 43:0 44:0 45:0 46:0 47:0 48:0 49:0 50:0 
-1 1:0 2:0 3:0 4:0 5:0 6:0 7:0 8:0 9:0 10:0 11:0 12:0 13:0 14:0 15:0 16:0 17:0 18:0 19:0 20:0 21:0 22:0 23:0 24:0 25:0 26:0 27:0 28:0 29:0 30:0 31:0 32:0 33:0 34:1 35:0 36:0 37:0 38:0 39:0 40:0 41:0 42:0 43:0 44:0 45:0 46:2 47:0 48:0 49:0 50:0 
-1 1:0 2:0 3:0 4:0 5:0 6:0 7:0 8:1 9:0 10:0 11:2 12:0 13:0 14:0 15:0 16:0 17:1 18:0 19:1 20:0 21:1 22:0 23:2 24:1 25:0 26:1 27:0 28:0 29:0 30:2 31:0 32:3 33:1 34:1 35:2 36:2 37:0 38:0 39:0 40:0 41:1 42:0 43:0 44:6 45:0 46:1 47:0 48:0 49:1 50:1 
-1 1:0 2:0 3:0 4:0 5:0 6:0 7:1 8:0 9:0 10:0 11:0 12:0 13:0 14:0 15:0 16:0 17:0 18:1 19:1 20:0 21:5 22:0 23:0 24:4 25:0 26:1 27:4 28:0 29:5 30:1 31:1 32:2 33:0 34:1 35:1 36:0 37:6 38:0 39:1 40:1 41:3 42:2 43:2 44:2 45:0 46:3 47:0 48:1 49:2 50:0 
-1 1:0 2:0 3:0 4:0 5:0 6:0 7:0 8:0 9:0 10:0 11:0 12:0 13:0 14:0 15:1 16:0 17:0 18:0 19:0 20:2 21:0 22:0 23:0 24:0 25:0 26:0 27:0 28:0 29:0 30:0 31:0 32:0 33:5 34:0 35:1 36:1 37:0 38:4 39:1 40:0 41:0 42:0 43:0 44:0 45:0 46:1 47:0 48:0 49:0 50:3 
-1 1:0 2:0 3:0 4:0 5:0 6:0 7:1 8:1 9:1 10:0 11:0 12:0 13:0 14:0 15:0 16:1 17:1 18:0 19:0 20:1 21:0 22:0 23:1 24:1 25:1 26:0 27:0 28:1 29:0 30:0 31:0 32:0 33:1 34:0 35:0 36:0 37:0 38:4 39:1 40:0 41:0 42:0 43:1 44:0 45:0 46:0 47:0 48:1 49:1 50:2 
-1 1:0 2:0 3:0 4:0 5:0 6:0 7:0 8:0 9:0 10:0 11:0 12:0 13:0 14:0 15:0 16:0 17:0 18:0 19:0 20:0 21:0 22:0 23:0 24:0 25:0 26:0 27:0 28:0 29:0 30:0 31:0 32:0 33:0 34:1 35:0 36:0 37:0 38:0 39:0 40:0 41:0 42:0 43:0 44:0 45:0 46:0 47:0 48:0 49:0 50:0 
-1 1:0 2:0 3:0 4:0 5:0 6:0 7:1 8:1 9:1 10:0 11:1 12:0 13:0 14:0 15:0 16:0 17:0 18:1 19:0 20:1 21:0 22:0 23:1 24:1 25:1 26:1 27:0 28:0 29:0 30:1 31:1 32:1 33:1 34:0 35:0 36:0 37:0 38:0 39:3 40:0 41:0 42:0 43:2 44:1 45:0 46:0 47:0 48:1 49:0 50:1 
-1 1:0 2:0 3:0 4:0 5:0 6:0 7:0 8:0 9:0 10:0 11:0 12:0 13:0 14:0 15:0 16:0 17:0 18:0 19:0 20:0 21:0 22:0 23:0 24:0 25:0 26:0 27:0 28:0 29:0 30:0 31:0 32:0 33:0 34:0 35:0 36:0 37:0 38:0 39:0 40:0 41:0 42:0 43:0 44:0 45:0 46:0 47:0 48:0 49:0 50:0 
-1 1:0 2:0 3:0 4:0 5:0 6:0 7:0 8:0 9:0 10:0 11:0 12:0 13:1 14:0 15:0 16:0 17:1 18:1 19:1 20:0 21:0 22:0 23:0 24:0 25:0 26:0 27:0 28:0 29:0 30:1 31:0 32:0 33:1 34:1 35:0 36:0 37:1 38:1 39:3 40:0 41:0 42:7 43:0 44:1 45:1 46:0 47:0 48:0 49:1 50:1 
-1 1:0 2:0 3:0 4:0 5:0 6:0 7:0 8:0 9:0 10:0 11:2 12:0 13:0 14:0 15:0 16:1 17:0 18:2 19:0 20:2 21:0 22:0 23:0 24:0 25:5 26:1 27:0 28:1 29:3 30:1 31:2 32:2 33:2 34:3 35:1 36:3 37:3 38:1 39:1 40:0 41:3 42:1 43:4 44:1 45:1 46:1 47:2 48:1 49:1 50:0 
-1 1:0 2:0 3:0 4:0 5:0 6:0 7:0 8:0 9:0 10:1 11:0 12:0 13:0 14:0 15:0 16:0 17:0 18:0 19:0 20:0 21:0 22:0 23:0 24:0 25:1 26:0 27:0 28:0 29:0 30:0 31:0 32:0 33:0 34:0 35:1 36:1 37:0 38:0 39:0 40:0 41:2 42:1 43:0 44:0 45:0 46:0 47:0 48:0 49:0 50:1 
-1 1:0 2:0 3:0 4:0 5:0 6:0 7:0 8:0 9:0 10:0 11:0 12:1 13:0 14:0 15:0 16:0 17:0 18:2 19:0 20:0 21:0 22:0 23:0 24:0 25:0 26:2 27:1 28:0 29:0 30:1 31:0 32:0 33:0 34:1 35:1 36:0 37:0 38:0 39:0 40:0 41:3 42:0 43:0 44:3 45:1 46:0 47:0 48:0 49:2 50:0 
-1 1:0 2:0 3:0 4:0 5:0 6:0 7:0 8:1 9:1 10:0 11:0 12:0 13:5 14:0 15:1 16:1 17:1 18:1 19:1 20:0 21:1 22:0 23:2 24:0 25:0 26:1 27:1 28:1 29:0 30:0 31:1 32:2 33:4 34:0 35:0 36:3 37:0 38:3 39:1 40:0 41:2 42:1 43:2 44:2 45:0 46:1 47:0 48:1 49:2 50:4 
-1 1:0 2:0 3:0 4:0 5:0 6:0 7:0 8:0 9:0 10:0 11:1 12:0 13:0 14:0 15:0 16:0 17:0 18:0 19:0 20:0 21:0 22:0 23:0 24:0 25:0 26:0 27:0 28:0 29:0 30:0 31:1 32:0 33:0 34:1 35:1 36:0 37:0 38:0 39:0 40:0 41:1 42:2 43:2 44:2 45:1 46:0 47:0 48:0 49:1 50:1 
-1 1:0 2:0 3:0 4:0 5:0 6:0 7:0 8:0 9:0 10:0 11:0 12:0 13:0 14:0 15:0 16:0 17:1 18:0 19:0 20:0 21:0 22:0 23:0 24:0 25:1 26:1 27:0 28:0 29:1 30:0 31:0 32:2 33:0 34:0 35:1 36:1 37:0 38:0 39:0 40:0 41:2 42:0 43:0 44:1 45:0 46:0 47:0 48:0 49:1 50:1 
-1 1:0 2:0 3:0 4:0 5:0 6:0 7:0 8:0 9:0 10:0 11:0 12:0 13:0 14:0 15:0 16:0 17:0 18:0 19:1 20:1 21:0 22:0 23:0 24:0 25:0 26:0 27:0 28:0 29:0 30:0 31:0 32:0 33:0 34:0 35:1 36:0 37:0 38:0 39:0 40:0 41:0 42:1 43:0 44:0 45:0 46:0 47:0 48:0 49:0 50:0 
-1 1:0 2:0 3:1 4:0 5:0 6:0 7:0 8:0 9:0 10:0 11:0 12:0 13:0 14:0 15:0 16:0 17:0 18:0 19:0 20:0 21:0 22:2 23:0 24:2 25:0 26:0 27:0 28:0 29:0 30:0 31:1 32:1 33:0 34:0 35:1 36:0 37:0 38:0 39:0 40:2 41:0 42:0 43:1 44:1 45:3 46:2 47:0 48:0 49:0 50:1 
-1 1:0 2:0 3:0 4:0 5:0 6:0 7:0 8:0 9:0 10:0 11:0 12:0 13:0 14:0 15:0 16:0 17:0 18:0 19:0 20:0 21:0 22:0 23:0 24:0 25:0 26:0 27:0 28:0 29:0 30:0 31:0 32:0 33:0 34:0 35:0 36:0 37:0 38:0 39:0 40:0 41:0 42:1 43:1 44:0 45:1 46:0 47:0 48:0 49:0 50:0 
-1 1:0 2:0 3:0 4:0 5:0 6:0 7:0 8:0 9:0 10:0 11:0 12:0 13:0 14:0 15:0 16:0 17:0 18:0 19:0 20:0 21:0 22:0 23:0 24:0 25:0 26:0 27:0 28:0 29:0 30:0 31:0 32:0 33:0 34:0 35:0 36:0 37:0 38:0 39:0 40:0 41:0 42:0 43:0 44:0 45:0 46:0 47:0 48:0 49:0 50:0 
-1 1:0 2:0 3:0 4:0 5:0 6:0 7:0 8:0 9:0 10:0 11:0 12:0 13:0 14:0 15:0 16:0 17:0 18:0 19:0 20:0 21:0 22:0 23:0 24:1 25:0 26:1 27:0 28:0 29:0 30:0 31:1 32:0 33:0 34:0 35:0 36:0 37:1 38:0 39:0 40:0 41:2 42:0 43:0 44:0 45:0 46:0 47:0 48:0 49:0 50:0 
-1 1:0 2:0 3:0 4:0 5:0 6:0 7:0 8:0 9:0 10:0 11:0 12:0 13:0 14:0 15:1 16:0 17:0 18:0 19:0 20:0 21:1 22:0 23:0 24:0 25:0 26:0 27:1 28:0 29:0 30:0 31:0 32:1 33:0 34:0 35:0 36:0 37:0 38:0 39:1 40:0 41:0 42:0 43:0 44:1 45:0 46:0 47:0 48:0 49:0 50:0 
-1 1:0 2:0 3:0 4:0 5:0 6:0 7:0 8:0 9:0 10:0 11:0 12:0 13:0 14:0 15:0 16:0 17:0 18:0 19:0 20:0 21:0 22:0 23:0 24:0 25:0 26:0 27:0 28:0 29:0 30:0 31:0 32:0 33:0 34:0 35:0 36:0 37:0 38:0 39:0 40:0 41:0 42:0 43:0 44:0 45:0 46:0 47:0 48:0 49:0 50:0 
-1 1:0 2:0 3:0 4:0 5:0 6:0 7:0 8:0 9:0 10:0 11:0 12:0 13:0 14:0 15:0 16:0 17:1 18:0 19:0 20:0 21:0 22:0 23:0 24:0 25:0 26:0 27:2 28:0 29:0 30:0 31:0 32:0 33:0 34:0 35:0 36:0 37:1 38:0 39:0 40:1 41:1 42:0 43:0 44:1 45:0 46:0 47:1 48:1 49:0 50:1 
-1 1:0 2:0 3:0 4:0 5:0 6:2 7:0 8:1 9:1 10:1 11:1 12:0 13:0 14:1 15:0 16:1 17:1 18:0 19:2 20:3 21:0 22:0 23:3 24:1 25:0 26:0 27:2 28:0 29:3 30:0 31:2 32:1 33:0 34:2 35:3 36:2 37:1 38:0 39:3 40:0 41:9 42:2 43:2 44:3 45:2 46:6 47:1 48:2 49:8 50:2 
-1 1:0 2:0 3:0 4:0 5:0 6:0 7:0 8:0 9:0 10:0 11:0 12:0 13:0 14:0 15:0 16:0 17:0 18:0 19:0 20:0 21:0 22:0 23:0 24:0 25:0 26:0 27:0 28:0 29:0 30:0 31:0 32:0 33:0 34:0 35:0 36:0 37:0 38:0 39:0 40:0 41:0 42:0 43:0 44:0 45:0 46:0 47:0 48:0 49:0 50:0 
-1 1:0 2:0 3:0 4:0 5:0 6:0 7:0 8:0 9:0 10:0 11:0 12:0 13:0 14:0 15:0 16:1 17:0 18:0 19:1 20:2 21:2 22:0 23:1 24:1 25:0 26:0 27:0 28:0 29:1 30:0 31:0 32:0 33:0 34:1 35:0 36:0 37:2 38:1 39:1 40:0 41:0 42:1 43:0 44:0 45:1 46:0 47:0 48:1 49:3 50:2 
-1 1:0 2:0 3:0 4:0 5:0 6:0 7:0 8:0 9:0 10:0 11:0 12:0 13:0 14:0 15:0 16:1 17:0 18:1 19:0 20:1 21:1 22:0 23:0 24:0 25:0 26:0 27:0 28:0 29:0 30:1 31:0 32:2 33:1 34:0 35:0 36:0 37:0 38:2 39:0 40:0 41:0 42:0 43:0 44:1 45:2 46:4 47:2 48:1 49:0 50:0 
-1 1:0 2:0 3:0 4:0 5:0 6:0 7:0 8:0 9:0 10:0 11:0 12:0 13:0 14:0 15:0 16:0 17:0 18:0 19:0 20:0 21:0 22:0 23:0 24:0 25:0 26:0 27:0 28:0 29:1 30:0 31:0 32:0 33:0 34:0 35:0 36:0 37:0 38:0 39:0 40:0 41:0 42:0 43:0 44:0 45:0 46:0 47:0 48:0 49:0 50:0 
-1 1:0 2:0 3:0 4:0 5:0 6:0 7:0 8:0 9:0 10:0 11:0 12:0 13:1 14:0 15:0 16:0 17:0 18:0 19:0 20:1 21:0 22:0 23:0 24:0 25:0 26:1 27:0 28:0 29:0 30:1 31:0 32:0 33:0 34:0 35:0 36:1 37:0 38:0 39:0 40:0 41:1 42:0 43:0 44:0 45:0 46:0 47:0 48:0 49:0 50:1 
-1 1:0 2:0 3:0 4:0 5:0 6:0 7:0 8:0 9:0 10:0 11:0 12:0 13:0 14:0 15:0 16:0 17:0 18:0 19:0 20:0 21:0 22:0 23:0 24:0 25:0 26:0 27:0 28:5 29:0 30:0 31:0 32:2 33:1 34:1 35:2 36:0 37:0 38:0 39:0 40:0 41:0 42:0 43:1 44:2 45:0 46:0 47:0 48:0 49:0 50:0 
-1 1:0 2:0 3:0 4:0 5:0 6:0 7:0 8:0 9:0 10:0 11:0 12:0 13:0 14:0 15:0 16:0 17:0 18:1 19:0 20:0 21:0 22:0 23:0 24:0 25:0 26:0 27:0 28:0 29:0 30:0 31:0 32:0 33:0 34:0 35:0 36:0 37:0 38:0 39:0 40:0 41:0 42:0 43:0 44:0 45:0 46:0 47:0 48:0 49:0 50:0 
-1 1:0 2:0 3:0 4:0 5:0 6:0 7:0 8:0 9:0 10:0 11:0 12:0 13:0 14:0 15:0 16:0 17:0 18:0 19:0 20:0 21:0 22:0 23:0 24:0 25:0 26:0 27:0 28:0 29:0 30:0 31:0 32:0 33:0 34:0 35:0 36:0 37:0 38:0 39:0 40:0 41:0 42:0 43:0 44:0 45:0 46:0 47:0 48:0 49:0 50:0 
-1 1:0 2:0 3:0 4:0 5:0 6:0 7:0 8:0 9:1 10:0 11:0 12:0 13:0 14:0 15:0 16:0 17:0 18:1 19:1 20:0 21:4 22:0 23:0 24:2 25:1 26:2 27:1 28:0 29:2 30:1 31:0 32:0 33:0 34:0 35:1 36:4 37:2 38:0 39:2 40:0 41:3 42:1 43:2 44:1 45:0 46:2 47:1 48:0 49:4 50:3 
-1 1:0 2:1 3:0 4:0 5:0 6:0 7:1 8:0 9:0 10:0 11:1 12:0 13:0 14:0 15:0 16:0 17:0 18:1 19:0 20:1 21:0 22:0 23:0 24:1 25:0 26:0 27:0 28:0 29:1 30:0 31:0 32:0 33:1 34:0 35:0 36:0 37:1 38:0 39:2 40:0 41:0 42:0 43:1 44:1 45:0 46:0 47:0 48:1 49:0 50:0 
